%YAML:1.0
my_svm: !!opencv-ml-svm
   svm_type: C_SVC
   kernel: { type:LINEAR }
   C: 2.6699999999999999e+00
   term_criteria: { epsilon:1.1920928955078125e-07, iterations:1000 }
   var_all: 64
   var_count: 64
   class_count: 10
   class_labels: !!opencv-matrix
      rows: 1
      cols: 10
      dt: i
      data: [ 0, 1, 2, 3, 4, 5, 6, 7, 8, 9 ]
   sv_total: 45
   support_vectors:
      - [ -6.93460606e-05, 1.33579320e-04, 3.00328047e-05,
          6.65168409e-05, -2.21838109e-05, 0., 0., 4.60442266e-07,
          9.33047268e-05, 1.22206591e-04, -1.17844182e-04,
          -1.93112828e-05, -1.91858617e-05, -3.48703725e-05,
          1.98523139e-05, 3.56577293e-05, -3.63752006e-05,
          -1.19434044e-04, -1.13385882e-04, -8.32571968e-05,
          3.71321948e-05, 6.08593473e-05, 7.66899175e-05, 2.54409970e-04,
          2.28195204e-04, 5.14542808e-05, -1.07446423e-04,
          -3.66694112e-05, 6.45379914e-05, 6.14308592e-05,
          -2.74469858e-05, 2.82432666e-05, -5.01813010e-05,
          -2.92024652e-05, -4.41316843e-05, -1.09056724e-04,
          4.31599619e-05, 7.31007531e-05, 6.88953587e-05, 6.02689943e-05,
          -7.08062871e-05, -3.09826100e-05, 2.56410221e-05,
          9.90912758e-06, 3.83530205e-05, 1.19549521e-04, 3.50322043e-05,
          2.63548663e-05, 2.53760430e-04, 1.78583927e-04, 1.03812934e-04,
          8.11159916e-05, -4.22123812e-05, -7.41068143e-05,
          4.12225154e-06, -7.81363997e-06, -9.25510612e-05,
          -1.01050035e-04, 9.83188147e-05, 9.93672711e-06,
          1.47264618e-05, -1.91432446e-05, 2.62352187e-05,
          1.49369671e-05 ]
      - [ 1.16099684e-04, 5.67089155e-05, 1.39995536e-05,
          -1.81914056e-05, -2.10514872e-06, -5.93341429e-05,
          1.74760462e-05, 4.08320084e-05, 2.30716487e-05, 9.44030908e-05,
          2.59619246e-05, -1.47124101e-05, -5.66697054e-05,
          -1.42826568e-04, -4.70744308e-05, 2.07489102e-05,
          -1.02397435e-05, -1.88731035e-04, -1.05908286e-04,
          -5.33306229e-05, -8.99070365e-05, -1.34106379e-08,
          8.45132308e-05, 8.43641537e-05, 1.05556363e-04,
          -4.10145985e-05, -7.93011495e-05, -6.81575330e-05,
          -4.25587059e-05, 2.73787246e-05, 4.35219408e-06,
          6.58643112e-05, -4.69266306e-05, -3.48474277e-05,
          1.84887085e-05, 2.62887497e-05, 4.98325280e-05, 9.51274342e-05,
          -6.08782648e-05, 4.64368577e-06, -4.96848115e-05,
          -1.20530487e-04, -1.11046847e-05, 7.03196201e-05,
          7.37067749e-05, 7.59591567e-05, 6.09446615e-05,
          -1.09883113e-04, 1.39312004e-04, 1.26593921e-04,
          8.95991470e-05, -2.64906812e-05, -1.83776247e-05,
          -1.28479631e-04, -5.13659288e-05, -8.72983674e-06,
          1.35580689e-04, 2.48688630e-05, -1.34138936e-05,
          2.28847821e-05, -6.45399195e-05, -2.31932313e-06,
          -1.19226479e-06, 4.43132703e-05 ]
      - [ 5.94270205e-05, 4.32795750e-05, -4.07837906e-05,
          -2.10005492e-05, 2.51058555e-06, -1.44071246e-05,
          2.36544935e-07, -2.00204659e-06, 7.90466947e-05,
          9.03660984e-05, 8.21652918e-07, -3.60530830e-05,
          -6.61248559e-05, -9.49479872e-05, -6.69482833e-05,
          -3.32974992e-06, 9.43123232e-05, -8.22784568e-05,
          -9.28630616e-05, -7.92548890e-05, -7.11608809e-05,
          2.99467520e-05, 3.42715903e-05, 6.38121637e-05, 1.34246991e-04,
          8.57164850e-05, -4.12534828e-05, -1.12979833e-04,
          -4.94338747e-05, -1.49301723e-05, -1.50861706e-06,
          1.15754039e-04, -1.12721682e-06, -7.37459850e-05,
          -3.43865140e-05, 1.61444405e-05, 4.53267567e-05,
          7.90870035e-05, -2.03779036e-05, -2.09852624e-05,
          -8.58112180e-05, -3.64846965e-05, 1.44086071e-05,
          -2.27491782e-05, 3.94134004e-05, 7.94019506e-05,
          1.20388097e-04, 2.65008057e-05, 6.04045745e-05, 6.56966149e-05,
          3.37147649e-05, 5.80121632e-05, 3.79144294e-05,
          -1.96300207e-05, -6.82445971e-05, -3.01103573e-05,
          1.72024957e-05, 1.85475328e-05, -1.52939901e-05,
          7.67626843e-05, -1.72803702e-05, -4.80843955e-05,
          -2.96524031e-05, 3.33954522e-05 ]
      - [ 3.18749298e-05, 4.63004544e-05, 1.00899433e-05, 8.12277067e-05,
          -3.84826053e-05, -4.08605702e-05, -5.33201164e-05,
          -4.60878364e-05, 5.96193931e-05, 6.24052991e-05,
          3.02891203e-05, 1.12469615e-05, -1.45911838e-06,
          3.04695550e-06, 1.19956230e-05, 6.38644924e-05,
          -7.22719915e-06, -1.11862049e-04, -2.47683220e-05,
          -6.76991622e-05, 3.03538727e-05, 5.74927835e-05,
          1.97982881e-05, 9.35759163e-05, 1.22849902e-04, 3.02108128e-05,
          -8.80115294e-06, -1.23225793e-04, 3.34983895e-07,
          -7.88208636e-05, 1.73774879e-05, 6.24849272e-05,
          -6.77628123e-05, -1.54136011e-04, -4.80686831e-05,
          -7.91026469e-05, -1.42281997e-05, 7.19849995e-05,
          1.35767463e-04, -1.13333763e-05, -1.07266038e-04,
          -4.52236782e-05, 9.15830969e-05, 5.23179369e-05,
          2.96903982e-05, 4.80010967e-05, 1.28151398e-04,
          -1.43233274e-05, 1.14955321e-04, 1.80083807e-04,
          4.93833577e-05, 7.87701283e-05, 1.79685401e-06,
          -5.88231960e-05, -5.17931803e-05, 3.40215011e-05,
          2.79507858e-05, -7.84198564e-05, -5.96978680e-06,
          4.08558299e-05, -1.94460481e-05, -9.48840461e-05,
          -7.46457736e-05, 5.28115670e-05 ]
      - [ -4.69415863e-05, 1.18535154e-05, 5.25046707e-05,
          1.01769176e-04, 3.42148924e-05, -4.04104576e-05,
          -4.68513463e-06, -3.12112716e-05, 3.06434886e-05,
          6.62144375e-05, 3.70747548e-05, -9.21819549e-07,
          -1.30696162e-05, -3.97949516e-05, -5.79936386e-05,
          -1.02511352e-04, 3.10046671e-05, -1.13483082e-04,
          -4.40292497e-05, -6.17801052e-05, -6.92986287e-05,
          7.05194034e-05, 1.64251451e-05, 6.98452059e-05, 1.21970326e-04,
          5.86499045e-05, -4.86086064e-05, -9.34566269e-05,
          -5.02566327e-05, 3.40647675e-05, 7.50424661e-05,
          1.24364233e-04, 3.68160072e-05, 4.02760952e-06, 3.37428878e-06,
          -8.81157539e-05, -9.00920058e-05, -1.51207987e-05,
          5.86777242e-05, 6.59478901e-05, 7.07149229e-06,
          -5.45460098e-05, -8.76186605e-05, -8.31746220e-05,
          -4.70401392e-05, 5.51347875e-05, 1.21792691e-04,
          5.92575270e-05, -9.91184606e-06, 1.17160562e-04,
          7.02600519e-05, 6.72683236e-05, -2.41342968e-05,
          -7.08754087e-05, -1.16843948e-04, -6.78215147e-05,
          3.31678348e-05, -2.74782888e-05, 5.68973046e-05,
          7.92072533e-05, -3.15244943e-05, -6.84365368e-05,
          -1.03277169e-04, -4.10537086e-06 ]
      - [ -1.98013819e-04, -7.50272520e-05, 7.04791673e-05,
          1.59989300e-04, 1.13847775e-04, 2.40773570e-05,
          -1.02468162e-04, -2.14874362e-05, 6.72038295e-05,
          4.60036827e-05, -7.60380935e-05, -5.31698715e-05,
          5.75937884e-05, 4.27663363e-05, 1.58998660e-06, 3.69584523e-05,
          -3.04760943e-05, -5.61489287e-05, -5.21293587e-05,
          7.14224952e-05, -7.59690056e-06, 9.98151809e-05,
          2.89952714e-05, 5.69782133e-05, 5.95514612e-05, 1.34411457e-04,
          5.81248205e-05, -9.66690568e-05, -1.04471355e-05,
          1.37301991e-04, 3.24436805e-05, -4.44703692e-05,
          4.92996405e-05, -1.78438622e-05, -1.35566937e-04,
          -1.40470918e-04, -1.24251470e-04, 1.31465786e-04,
          1.42225472e-04, 1.77237307e-04, 4.02202113e-06,
          -1.70659798e-04, 2.60307734e-05, -1.22307747e-05,
          8.23067312e-05, 1.09953733e-04, 1.17038842e-04, 8.83391695e-05,
          2.13392224e-04, 1.01145517e-04, 5.39623761e-05,
          -2.26670854e-05, 1.06550709e-04, -5.71588389e-05,
          -1.65221663e-05, 8.08582190e-05, 4.30163709e-05,
          -1.51434979e-05, 1.72501568e-05, -1.33764319e-04,
          -1.14439672e-05, -3.78166224e-05, 2.21488954e-05,
          7.88629332e-05 ]
      - [ 1.16018920e-04, 4.62565076e-05, -4.82578162e-06,
          -1.83932170e-05, -8.79983272e-05, -2.33011106e-05,
          -1.47147148e-05, -1.59486751e-06, 8.44038805e-05,
          2.29423331e-05, -3.00615793e-05, -9.33961346e-05,
          -2.74719368e-05, -3.13555975e-05, -1.35161908e-05,
          8.48267082e-05, -1.16950159e-05, -1.32368164e-04,
          -6.79987643e-05, -4.50848747e-05, 2.10491762e-05,
          6.89730150e-05, 6.23921442e-05, 9.25238855e-05, 1.65999038e-04,
          -5.62932546e-05, -4.90113562e-05, -3.82723083e-05,
          6.21414292e-05, 4.08783308e-05, 2.29198959e-05,
          -2.18934565e-05, 9.32559306e-06, -8.37965417e-05,
          -3.09874849e-05, -8.28519696e-05, -3.57062127e-05,
          6.76632480e-05, 9.64229257e-05, 2.78625394e-05,
          -6.14542805e-05, -1.36698782e-05, -4.57622045e-05,
          1.36303497e-05, 2.89992331e-05, -1.62836786e-05,
          2.02343381e-05, -5.31988808e-05, 2.62994272e-05,
          7.85926604e-05, 1.34900702e-05, 7.95992746e-05, 9.06736750e-06,
          -1.98527177e-05, -7.33913039e-05, -6.83686958e-05,
          -7.64663782e-05, -9.60568941e-05, 1.20742043e-05,
          1.31231718e-04, 5.61503730e-05, -8.92134949e-07,
          -8.17631826e-06, 4.04342900e-05 ]
      - [ 1.23572434e-04, 8.77353814e-05, 7.77617388e-05,
          -6.67054701e-06, -5.65286355e-05, -1.07708765e-04,
          -1.59105301e-04, -4.21405020e-05, 3.07350674e-05,
          1.25280028e-04, -1.30931352e-04, -5.63147807e-07,
          8.80270818e-07, -2.53250164e-05, -1.31501292e-04,
          -1.12590511e-04, 2.60379202e-05, -1.91041094e-04,
          -7.15223650e-05, -2.79696178e-06, 2.26214179e-05,
          6.32185620e-05, 5.88557668e-05, 6.34262688e-05, 1.18083633e-04,
          3.25149740e-05, -6.41664446e-05, -6.49084614e-05,
          7.95645174e-05, 1.27692756e-05, -8.38415290e-05,
          -2.17740690e-05, -4.29003157e-05, -1.05843392e-04,
          -1.45235317e-04, -8.32162186e-05, -2.40942118e-05,
          1.16185045e-04, 3.22795240e-05, 7.30362517e-05,
          -5.96469472e-05, -3.39093713e-05, -1.95488956e-05,
          -3.73906033e-07, 3.77677898e-05, 1.42697509e-05,
          5.76028942e-05, 1.29044884e-05, 1.78757284e-04, 1.28688567e-04,
          2.22170656e-05, 5.96221507e-05, 2.75456987e-05,
          -4.40205222e-05, -1.39236785e-04, -6.62342354e-05,
          7.16365976e-05, -2.61361711e-05, -3.36727644e-05,
          -2.55990813e-06, -8.49591233e-05, -6.79348304e-05,
          -2.70435285e-05, 4.05642350e-05 ]
      - [ 1.05599371e-04, 2.67111227e-05, -1.08453460e-05,
          4.73446453e-05, -8.19089200e-06, -4.57177921e-05,
          -5.73650104e-05, -1.19384735e-04, 1.53855683e-04,
          -5.38173372e-05, -3.97695294e-05, 9.85460974e-06,
          -1.01583319e-04, -5.44804898e-05, -8.33229278e-05,
          -1.19590277e-05, 4.81390016e-05, -1.06928703e-04,
          -1.12040245e-04, -6.81552920e-05, -1.69537816e-05,
          2.25226795e-05, 5.23037852e-06, 4.99144626e-05, 2.45732110e-04,
          9.55342912e-05, -9.03370528e-06, -9.69919056e-05,
          1.24997159e-05, -3.65439919e-05, 8.35027313e-05,
          1.15907307e-04, -5.37391170e-05, -8.04982847e-05,
          -3.32900672e-05, -1.14721654e-04, -7.09003871e-05,
          6.82490499e-05, 7.56583831e-05, 3.84373525e-05,
          -1.12928799e-04, 4.17835799e-05, 6.09219096e-05,
          -6.28171256e-05, -4.35367256e-05, -2.14110719e-06,
          7.83561482e-05, 3.33956887e-05, 1.13560956e-04, 9.23065381e-05,
          1.97195059e-05, 1.23217163e-04, 2.90285843e-05, 1.14893228e-05,
          -7.13434565e-06, -8.50162178e-05, -1.13124021e-04,
          -7.72550993e-05, 9.45331776e-05, 1.96488312e-04,
          4.15402028e-05, -7.15139686e-05, -6.45224136e-05,
          -4.72929496e-05 ]
      - [ 1.24903017e-04, 1.83118551e-04, 5.47497693e-05,
          -2.15244108e-05, -7.90760823e-05, 5.28618366e-05,
          -1.29251357e-05, -6.32357433e-06, -2.21446826e-05,
          -4.54993533e-05, 1.28748317e-04, -9.00349623e-05,
          3.39180260e-05, -3.59787155e-05, -1.13405687e-04,
          2.34735227e-04, 3.44761975e-05, -1.16153380e-04,
          -6.20366336e-05, -1.17372947e-04, 9.61316400e-05,
          -1.73551343e-05, -2.31491904e-05, -4.43273129e-05,
          -1.34953343e-05, -7.40502446e-06, 8.88211143e-05,
          4.19762000e-05, -2.25926255e-04, 9.16686247e-07,
          -8.75956175e-05, 9.97497864e-06, -2.53232894e-04,
          -5.17994777e-05, 1.29379143e-04, -3.89818961e-05,
          -1.25226006e-05, -5.84294903e-05, -8.41940200e-05,
          3.85057610e-05, 7.14497291e-05, 3.94436938e-05, 6.73460704e-07,
          2.55354871e-06, -2.34120416e-05, -8.14566229e-05,
          1.24012274e-06, -1.06738378e-04, 2.36612366e-04,
          -1.05580082e-04, 5.93396180e-05, -1.11063513e-04,
          -1.28482527e-04, -5.69715994e-05, -5.50182522e-05,
          1.25647101e-04, 1.35454509e-04, -1.58332201e-04,
          -7.73899228e-05, 1.11178015e-05, -1.38158211e-04,
          -1.73892695e-04, -8.46814437e-05, 1.08996115e-04 ]
      - [ 7.23523626e-05, 3.93353948e-05, -6.58224526e-05,
          -1.56759808e-04, -6.90079614e-05, 1.39067779e-05,
          -5.71426244e-06, -3.45627882e-07, -4.27787336e-06,
          -3.31565825e-05, 9.67105152e-05, -6.80059093e-05,
          -9.47090011e-05, -9.10554227e-05, -9.28448426e-05,
          1.45206664e-04, 1.30369604e-04, 3.79226299e-06,
          -6.29464557e-06, -1.90430019e-05, -5.84871923e-05,
          -4.79675728e-05, -1.68200202e-07, 0., -9.31085924e-06,
          -1.01436635e-05, -8.65472521e-06, 5.81524728e-05,
          -7.41887925e-05, -1.06340281e-04, -6.17486658e-05,
          9.25592976e-05, 8.34646344e-05, -4.49437757e-05,
          3.38832870e-05, -3.99283053e-05, -1.21240118e-05,
          -7.95004526e-05, -2.77507133e-05, 7.43139535e-05,
          4.30171895e-05, 1.93789601e-05, -2.46825875e-05,
          1.47493995e-06, 6.19277807e-06, -1.08820695e-05,
          -4.28539242e-05, 1.19256501e-05, -8.66847040e-06,
          -8.42799127e-05, -3.83720508e-05, 4.85053670e-06,
          5.94332450e-05, 8.49060161e-05, -1.51569493e-05,
          2.47129265e-05, 9.47859953e-05, -1.99801259e-04,
          -3.54367403e-05, 1.01863414e-04, 9.89662476e-06,
          -2.10254802e-06, -5.35360377e-05, -2.46504133e-05 ]
      - [ -2.35930129e-05, -2.00744744e-05, 3.91037283e-05,
          -7.84416407e-05, -6.58273057e-05, -8.01662318e-05,
          -1.29185762e-04, -1.59631687e-04, -1.29275184e-04,
          -5.42753005e-05, 1.68504033e-04, 2.66047732e-06,
          3.61598577e-05, 4.93575317e-05, 2.10821745e-05, 1.88740858e-04,
          5.77092978e-05, 3.56290548e-05, 1.34946618e-04, 2.50364537e-05,
          -1.07843198e-05, -1.18052572e-04, -4.82677133e-05,
          -8.71406373e-05, -5.76312814e-05, -5.03701231e-05,
          7.22496989e-05, -2.19835438e-05, -2.45895877e-04,
          -2.36085310e-04, -2.39206256e-05, 5.36680163e-05,
          -6.43293824e-05, -1.52703389e-04, -9.38491939e-05,
          -1.50914741e-04, -4.50665248e-05, -9.56076633e-07,
          4.44349826e-05, 1.40955264e-04, 1.11734800e-04, 1.21589510e-05,
          -2.19277354e-06, -6.82477639e-06, 2.50476296e-05,
          1.99603983e-05, 2.57464762e-05, -3.06992079e-05,
          6.31902512e-05, -1.21675541e-04, -9.02533939e-05,
          -6.16630859e-05, 7.53023824e-06, 9.09122828e-05,
          5.91041280e-05, 1.19662458e-04, -1.09719786e-05,
          -2.03789197e-04, -6.26836991e-05, 4.80161543e-05,
          -6.53787356e-05, -5.31849983e-05, -1.56951573e-04,
          1.59234060e-05 ]
      - [ -3.62734172e-05, 2.49778441e-05, 1.90402193e-06,
          -3.34274700e-05, 4.24566497e-06, 2.91019369e-05,
          -2.04666540e-05, -1.48924028e-05, -7.63784992e-05,
          -2.43117647e-05, 6.07894654e-05, 1.75130990e-05,
          3.76852986e-05, 4.72327010e-05, -1.27493680e-04,
          -4.18187228e-05, 1.06444939e-04, 7.71104751e-05,
          -1.48230713e-04, 1.50223204e-05, -9.01224394e-06,
          -3.31573319e-05, -3.81715217e-05, -5.39425264e-06,
          1.53734303e-09, 9.96075300e-07, 4.72248721e-05,
          -1.57036731e-04, -3.55112497e-05, -7.20874159e-05,
          9.24727374e-06, 7.06276987e-05, 7.01894605e-05, 2.83463601e-06,
          1.91329600e-05, -3.86949068e-05, -8.83029279e-05,
          -5.61967681e-05, -5.42952039e-05, 1.47424318e-04,
          6.83302860e-05, -2.89186537e-05, -1.15392562e-04,
          -9.11023380e-05, -1.68871829e-05, 2.52989435e-06,
          -1.55638481e-05, 4.24930622e-05, -4.35960355e-05,
          -9.99480617e-05, -2.63393008e-06, -5.58180145e-05,
          -5.03279944e-06, -1.84337860e-05, -2.15071195e-05,
          1.94979257e-05, 1.12252208e-04, -9.47703447e-05,
          -7.93924555e-05, 3.88189474e-05, -3.70573871e-05,
          -1.09523471e-05, 1.35877826e-05, -8.26917531e-05 ]
      - [ -9.67391388e-05, -9.16446952e-05, 1.90780920e-04,
          1.72285309e-05, 3.66950553e-05, 4.95381073e-06,
          -7.82970346e-06, -7.91199909e-06, -1.01589731e-05,
          -8.54715836e-06, 1.27579522e-04, 1.25605702e-05,
          1.30613562e-05, 1.92181142e-05, 1.96603323e-05, 1.35040391e-04,
          1.96093824e-05, -5.20846006e-05, 1.29784803e-05,
          6.10832794e-05, 4.07054467e-05, -5.54867838e-05,
          -1.01414289e-05, -4.51082378e-05, -4.84342927e-05,
          -1.55598900e-05, 2.15646396e-05, 5.23113631e-05,
          2.19462854e-05, -1.91776009e-04, 1.35057298e-05,
          1.06632258e-04, -2.46970340e-05, -6.11931364e-06,
          2.47814442e-05, -4.22766570e-05, -4.06451145e-05,
          -1.23204212e-04, -1.05786705e-04, 2.04302210e-04,
          1.90530787e-04, -1.85378143e-04, -1.29347718e-05,
          -3.56897840e-06, 1.52354878e-05, 8.92390744e-06,
          1.65524034e-05, 2.47570733e-05, 6.67222994e-05,
          -4.18780037e-05, -2.13476633e-05, -3.50794949e-07,
          -4.39751202e-05, 4.68668950e-05, -2.58588316e-05,
          1.21859579e-04, 1.60462994e-04, -1.24577404e-04,
          -1.48368359e-04, -9.85072911e-05, -3.54965996e-05,
          6.32468145e-05, -1.82935128e-05, -3.38314931e-05 ]
      - [ 2.28787540e-04, 2.15933392e-06, -1.40349484e-05,
          -2.19664231e-04, -1.41338460e-04, 1.13448441e-05,
          3.65554865e-06, 0., -5.21715956e-05, -8.08805707e-05,
          2.36319283e-05, -2.13042251e-04, -1.44900696e-04,
          -2.31920512e-05, -3.92741422e-05, 2.73791666e-04,
          -7.38307281e-05, -4.15186842e-05, 1.36266593e-04,
          -2.58071741e-05, -2.96386897e-05, 2.09300808e-07, 0., 0.,
          -3.74094839e-06, -1.33205340e-05, 1.65241599e-05,
          1.53406181e-05, 7.97970206e-05, -3.07767004e-05,
          -1.45543716e-04, 9.08722086e-06, -7.98623205e-06,
          -5.84156805e-05, 1.53099572e-05, -1.36786301e-04,
          -9.66177104e-05, -3.09446732e-05, 6.19508646e-05,
          9.49031237e-05, 1.07961670e-04, 3.57842728e-05,
          -3.02381886e-06, 9.68635777e-06, -3.85883723e-05,
          -1.31319204e-04, -7.68018144e-05, -5.91685312e-05,
          -1.65184683e-05, -2.51567144e-05, -1.33743801e-04,
          3.70010355e-07, 1.55926537e-05, 7.67089150e-05, 1.63080458e-05,
          -7.54169305e-05, -6.77582793e-05, -1.52001012e-04,
          -4.11532637e-05, 9.42290644e-05, 1.11253234e-04,
          -2.28412464e-05, 8.02407976e-06, 3.38420650e-05 ]
      - [ 1.78731105e-04, 4.38906609e-05, -2.82586534e-05,
          -1.99238944e-04, -5.21444672e-05, 4.05237879e-05,
          -4.40809672e-05, -6.91990281e-05, -3.27738744e-05,
          -6.96489878e-05, 9.61652622e-05, -6.43781605e-05,
          1.02301245e-04, 1.10673864e-04, -1.59462841e-04,
          5.85342023e-05, -2.29137149e-05, -3.35045879e-05,
          9.79026809e-05, 1.12051966e-04, 2.82179626e-05,
          -2.53798862e-05, -5.24065799e-05, -1.50276674e-05,
          -2.02032934e-05, -5.14544408e-05, 2.71223817e-05,
          -8.62305096e-05, 9.21625469e-05, -1.11481619e-04,
          -1.07449509e-04, -8.30443696e-06, -3.61540624e-05,
          -1.26447849e-04, -5.30293346e-06, -2.65284965e-04,
          -2.46477110e-04, -1.83203883e-04, -1.88879967e-05,
          1.78517599e-04, 1.04520783e-04, -8.84943292e-05,
          -1.09461544e-04, -4.67342979e-05, -3.95655261e-05,
          -3.64324442e-05, -7.86826131e-05, -2.54909610e-05,
          -2.32671073e-06, -6.85943087e-05, 5.29419558e-05,
          -2.57052875e-06, 4.47222774e-05, 1.53219691e-04,
          -1.89945349e-04, 5.21447555e-06, 1.50839842e-04,
          -1.81771655e-04, -1.47176877e-04, 3.60574559e-05,
          -1.46590261e-04, -3.03696597e-05, -1.10347879e-04,
          4.16894763e-05 ]
      - [ 7.16868317e-06, -4.18255222e-05, -1.68676324e-05,
          -9.07956855e-05, -9.11888346e-05, -2.49643472e-05,
          -8.12631624e-05, -3.73767034e-05, -1.45694779e-04,
          -1.40393022e-04, 1.23793259e-04, -3.93982918e-05,
          1.18143216e-05, 2.04357148e-05, -3.79674202e-05,
          1.98757465e-04, 2.92632267e-05, 4.11232286e-05, 1.45316635e-05,
          3.86723769e-07, -9.60742909e-06, -1.07912478e-04,
          -2.20257425e-05, -7.76944944e-06, -8.25726943e-07,
          -8.97320933e-06, 1.19088843e-04, -9.02710235e-05,
          -9.49211535e-05, -2.69528216e-04, -1.56242706e-04,
          2.81993271e-04, 3.98496049e-05, -5.76439270e-05,
          -8.61314111e-05, -1.27945910e-04, -1.41864526e-04,
          -1.22835147e-04, 1.11930649e-05, 1.65841746e-04,
          1.23889607e-04, 8.57007326e-05, -1.23541950e-05,
          -6.71055168e-05, -6.05539899e-05, -6.43639287e-05,
          -2.41972593e-05, 5.77483524e-06, -9.41226172e-05,
          -9.71121917e-05, -2.60360430e-05, -2.14108004e-05,
          4.23057645e-05, 1.45315047e-04, -1.52246321e-05,
          5.20922811e-07, -1.32827015e-04, -2.01267219e-04,
          -2.47365078e-05, 1.67196122e-04, 1.37082563e-04,
          -6.29192364e-05, -8.52242156e-05, -3.40323277e-05 ]
      - [ -1.43025754e-04, -4.50518739e-04, -3.23902554e-04,
          -4.20954835e-04, -3.02555418e-04, 5.41530666e-04,
          1.62019496e-04, 1.34686270e-04, -1.75672118e-04,
          8.77848215e-05, -2.33361177e-04, -3.06060974e-05,
          -2.11406150e-04, -3.98306933e-04, 2.45619995e-05,
          -1.80560732e-04, 4.88311576e-04, 3.66311433e-04,
          2.48766679e-04, 3.03166307e-04, -1.89742626e-04,
          -3.23322369e-04, -6.28472335e-05, 1.54189911e-04,
          5.06956421e-04, 5.64404821e-04, 1.27422172e-04, 1.08829754e-05,
          -2.23217212e-05, 1.49474625e-04, -3.11828044e-05,
          3.45028762e-04, 3.38285317e-04, 3.78201876e-05,
          -2.37743734e-04, 3.63875995e-04, 1.15433490e-04,
          1.71764419e-04, 2.20198359e-04, 3.54595861e-04, 2.59588473e-04,
          -2.92838376e-05, -2.02903873e-04, 2.24770673e-04,
          2.94509897e-04, 4.13006055e-04, 3.24675202e-04, 8.23424431e-04,
          -2.80697277e-04, -3.25683039e-04, -2.35210740e-04,
          2.71571160e-04, 2.06532583e-04, -7.89934638e-05,
          -1.77435155e-04, -4.42716846e-04, -3.04812274e-04,
          -1.94045235e-04, -5.42071139e-05, 6.99684097e-05,
          1.08231121e-04, 3.89491353e-04, -5.54187536e-05,
          8.73881982e-06 ]
      - [ -1.13850001e-04, -1.40841410e-04, -5.23920717e-05,
          1.74260684e-04, -7.38239687e-05, -1.31776198e-06,
          -6.34224998e-05, -8.18105036e-05, -1.43193960e-04,
          -2.02753436e-05, 5.42903617e-05, 1.66631595e-04,
          2.10423459e-04, 2.46154610e-04, 1.72737651e-04, 6.23907472e-05,
          -9.90924218e-06, 1.13491922e-04, 1.53813264e-04,
          2.50714977e-04, -3.37766869e-05, -2.57904071e-06,
          -8.12926592e-05, -7.03548722e-05, -2.78117168e-05,
          1.55302951e-05, -2.23559400e-04, -4.90377424e-05,
          4.36153096e-05, -1.59411138e-04, -9.24935011e-06,
          -2.91641554e-05, -6.12092026e-06, -2.10728012e-05,
          -1.91888088e-04, -2.29347042e-05, 1.24029088e-04,
          8.77663842e-05, 1.28323678e-04, 2.50884568e-05,
          -1.68778624e-05, 1.53752204e-04, -6.09029485e-06,
          1.80454721e-04, 1.27254156e-04, 1.20986340e-04, 6.24154127e-05,
          -9.97925417e-06, -5.31290607e-05, 1.76732119e-05,
          -4.12596019e-05, 3.19691753e-05, 1.04695609e-04,
          1.79879207e-04, 1.79441577e-06, 7.76285560e-06,
          -1.22071142e-04, -1.25924911e-04, 5.87736904e-05,
          -5.99122141e-05, 1.62055600e-04, -4.79651426e-05,
          -2.20084316e-04, -8.54521859e-05 ]
      - [ -1.51864195e-04, -4.73539076e-05, 2.33215851e-05,
          1.17713580e-05, 5.41128211e-05, 6.85767445e-05, 2.60339020e-05,
          -9.35295338e-06, -8.48577984e-05, 2.93795483e-06,
          1.20696299e-04, 5.57246531e-05, 8.20062123e-05, 6.47286070e-05,
          -1.18593904e-04, -1.98370457e-04, 1.17880358e-04,
          1.57990304e-04, 1.24546386e-05, 2.58000182e-05,
          -4.26427032e-05, 3.72258864e-06, -2.63679776e-05,
          1.79475210e-05, 6.89047301e-05, 7.35573121e-05, 6.91377136e-05,
          -3.82674734e-05, -9.51043476e-05, 1.50261922e-05,
          5.19339264e-05, 6.63298779e-05, 1.92803374e-04, 1.28798216e-04,
          6.79734512e-05, -2.01646126e-05, -7.63015996e-05,
          -9.50370886e-05, 4.04092534e-05, 1.27471343e-04,
          1.76990841e-04, -5.51724006e-05, -1.86041318e-04,
          -1.93935150e-04, -5.42822017e-05, 4.14917777e-05,
          3.52940951e-05, 1.41643613e-04, -1.29426815e-04,
          -8.87083588e-05, -9.22541294e-05, 6.38503698e-05,
          9.88100783e-06, -2.87161911e-05, 1.70007843e-06,
          -8.85156769e-05, -1.47673927e-04, 6.72611932e-05,
          1.02894905e-04, 8.62671441e-05, 3.99263845e-05, 8.64019385e-05,
          -2.14191205e-05, -1.21370416e-04 ]
      - [ -2.53298436e-04, -1.00660131e-04, -2.61199075e-05,
          1.86253994e-04, 3.31779811e-05, 9.56863951e-05, 6.50856891e-05,
          3.68323927e-05, -8.18003027e-05, -7.45346479e-05,
          -9.32668336e-05, 1.56050271e-04, 2.15388882e-05,
          1.78045433e-04, 1.40626347e-04, 7.74522268e-05, 7.57975504e-05,
          1.09951958e-04, 6.63220198e-05, 7.61824631e-05,
          -3.09635980e-05, 1.36154522e-05, 6.65160314e-06,
          4.97375731e-06, -4.18100353e-05, 8.62990491e-05,
          2.20884231e-05, 8.85306217e-05, -6.28117195e-05,
          7.79417533e-05, 5.28046221e-05, -3.33724201e-05,
          1.52609064e-04, -1.11899972e-05, -9.21150495e-05,
          -2.32189614e-05, -2.25881886e-05, 6.14300079e-05,
          -3.21098196e-06, 1.68186976e-04, 7.28061787e-05,
          -3.36430130e-05, -2.43923550e-05, -6.46007247e-05,
          1.02036254e-04, 7.20643875e-05, 5.74141195e-05, 6.53525276e-05,
          -1.40340971e-05, -8.69266587e-05, -6.81564343e-05,
          6.64232502e-05, 7.93482177e-05, 2.27525179e-05, 7.10953202e-07,
          -4.01297875e-05, -1.87137102e-05, -2.80597703e-07,
          -4.71176318e-05, -4.15314717e-05, -2.40760401e-05,
          9.11116240e-06, -2.12867890e-05, -6.29326241e-05 ]
      - [ 2.19282898e-04, -5.84181616e-05, -2.05701566e-04,
          6.10687785e-05, -4.64719415e-05, 1.70702246e-04,
          -1.21552221e-05, 2.69893590e-05, -5.41323288e-06,
          3.43808788e-05, 1.41693119e-04, -2.26555658e-05,
          -1.66989514e-04, -1.44705218e-05, 1.72426298e-04,
          2.04701777e-04, -2.16448840e-04, -2.99089788e-06,
          2.51905061e-04, -2.31614264e-04, -7.30038955e-05,
          1.35611685e-04, 2.01540955e-04, 1.23947029e-04, 3.48307585e-05,
          -4.69515289e-05, -2.31586164e-04, -3.11473086e-05,
          3.42809391e-04, 9.54353018e-05, 7.03590922e-05,
          -1.67292528e-04, 1.91655912e-04, 1.79209179e-04,
          6.41521256e-05, 1.83712182e-05, -1.88404170e-04,
          3.22667183e-04, 1.87498197e-04, 1.26931249e-04, 9.59309909e-05,
          -1.10138644e-04, -2.33987648e-05, -5.42372836e-05,
          -1.88884878e-04, -1.17148724e-04, 4.72184365e-05,
          -1.03753751e-04, -1.18105250e-04, 3.11043077e-05,
          -3.28514579e-04, 3.35034099e-04, 2.20557854e-06,
          -6.98135264e-05, 4.95629538e-05, 6.43279491e-05,
          -4.01013182e-04, -3.01986845e-04, -3.57106801e-05,
          1.49598069e-04, 4.93407424e-04, 2.22751783e-04, 1.13447844e-04,
          -2.56040832e-04 ]
      - [ -9.42430634e-05, 3.84949781e-05, -1.12449954e-04,
          5.90009404e-05, -5.80998749e-05, -1.51497414e-04,
          -4.47044586e-04, 2.49357399e-04, -2.10138496e-05,
          -2.03723030e-04, -3.10290285e-04, 1.85901154e-04,
          2.28767283e-04, -1.51726435e-05, -4.59895324e-04,
          -4.73881664e-04, -3.92685688e-05, 3.01129417e-04,
          1.76406626e-04, 3.33774689e-04, -2.07382051e-04,
          -9.06466157e-05, -8.52768571e-05, -2.42792477e-04,
          4.26776060e-05, 4.86239805e-05, 5.40680667e-05, 3.37955134e-04,
          2.05456658e-04, 1.14870578e-04, -7.08373045e-05,
          -3.56743913e-05, 2.67100899e-04, -7.09156229e-05,
          -1.30961664e-04, 1.78871007e-04, -3.02945293e-04,
          -1.21739395e-04, 6.67546337e-05, 2.68392905e-04,
          -6.40309154e-05, 2.91624547e-05, -9.94190050e-05,
          -8.71155280e-05, 1.18440708e-04, 2.12083578e-05,
          3.19622108e-04, 4.59065574e-04, -1.80176212e-04,
          -3.18703096e-04, -2.78332591e-04, 1.52370543e-04,
          3.58559802e-04, 1.00573685e-04, -2.43335700e-04,
          -4.00309887e-04, -1.22011930e-04, -2.34734634e-05,
          3.94749150e-05, -2.23455281e-04, -7.69742037e-05,
          2.53897833e-05, -9.58339515e-05, -1.17337571e-04 ]
      - [ -8.44416427e-05, -9.76806768e-05, -4.74413500e-05,
          -1.42870722e-05, 2.01323328e-05, 6.33481250e-05,
          -3.90328423e-05, -4.12159097e-05, 4.01172474e-06,
          -9.49939640e-05, -7.40468749e-05, 7.06740830e-05,
          6.64918989e-05, 8.56942061e-05, 4.08780725e-05,
          -1.01632882e-04, 2.44140501e-05, 6.21365398e-05,
          6.63120445e-05, 1.62995071e-04, -3.61724851e-05,
          -6.93461916e-05, -1.71047650e-05, -5.02530238e-05,
          4.05135870e-05, -1.25357274e-05, 7.78146277e-05,
          2.89342079e-05, -1.28618353e-06, -8.58988569e-05,
          6.10120078e-05, 3.94231502e-05, 9.45114516e-05,
          -1.62338401e-05, -8.33944141e-05, -6.92249841e-06,
          -8.99092265e-05, 2.97203551e-05, 5.79775442e-05,
          -1.68025254e-05, 7.71505802e-05, -9.66186349e-07,
          -1.47949322e-05, -6.77335920e-05, -6.26367691e-05,
          -6.96631878e-06, 6.00762978e-05, 1.25920022e-04,
          -1.47922925e-04, -2.17683555e-05, -1.03707156e-04,
          3.88892477e-06, 1.49843268e-04, 1.09165558e-04, 9.85802981e-05,
          -6.79298537e-05, -2.10249069e-04, -1.20624536e-04,
          1.47327126e-04, 1.25585546e-04, 2.12687810e-05, 3.56032033e-05,
          -6.22178632e-05, -9.30487804e-05 ]
      - [ -9.81520789e-05, 1.35091732e-05, 1.30371147e-04,
          1.11836620e-04, 8.07163524e-05, -6.99072625e-05,
          -6.92465837e-05, -1.28228741e-04, -1.18633703e-04,
          8.70990552e-05, -7.50252730e-06, 2.14225816e-04,
          1.56393784e-04, 1.98598660e-04, 1.26351559e-04,
          -5.76685889e-05, -1.32020592e-04, 8.30861100e-05,
          1.04643608e-04, 1.39588374e-04, 5.09836791e-05,
          -2.04597131e-06, -4.44051439e-05, -7.53609420e-05,
          -1.31406277e-05, -5.13495361e-05, -7.20794378e-06,
          -6.93036854e-05, -5.67264215e-05, -2.03640266e-05,
          7.43251658e-05, -9.44431449e-05, -1.30949760e-04,
          -1.29678403e-04, -1.09446912e-04, -5.59210857e-05,
          5.48911485e-05, 7.72606363e-05, 1.65332473e-04,
          -2.30131318e-05, -4.88472979e-05, -5.27897027e-05,
          -7.61966658e-06, 1.30778571e-04, 1.74822562e-05,
          5.23385643e-05, 8.33665836e-05, -4.60944539e-05,
          6.24034001e-05, 2.58513355e-05, 5.35649742e-05,
          -7.78939357e-05, -1.27901367e-04, -4.01839316e-05,
          1.01369551e-04, 3.59501973e-06, -9.28189256e-05,
          -5.13840459e-05, 4.56470989e-05, -1.07124841e-04,
          -3.59223122e-05, -6.36200275e-05, -1.83848897e-04,
          -1.01823956e-04 ]
      - [ -1.63489094e-04, 8.21499052e-05, 1.71510983e-04,
          3.40264378e-04, 3.04593821e-04, 4.89888989e-05,
          -1.00621961e-04, -1.30085173e-04, -1.46345556e-04,
          -2.21195642e-05, 1.21947691e-04, 1.15848510e-04,
          3.30593699e-04, 1.20224780e-04, 8.30490899e-06,
          -2.67668802e-04, 1.37528885e-04, -9.22359686e-05,
          -9.40032114e-05, -7.47210652e-05, 2.53071285e-05,
          1.11073983e-04, -2.88411811e-05, 8.67625931e-05,
          7.63530552e-05, 5.95826577e-06, 8.95068733e-05,
          -7.31254186e-05, 2.17953184e-05, 3.39477810e-05,
          2.50219018e-04, 2.39881301e-05, 4.24473619e-05, 2.30479811e-04,
          -8.50837459e-05, -3.12771415e-04, -1.84435266e-04,
          1.99170790e-05, -8.77604325e-05, 4.38567113e-05,
          3.28094844e-04, 1.18796474e-04, -8.40071662e-05,
          -3.53146344e-04, -2.32675578e-04, -1.84082834e-04,
          2.53654653e-05, 1.94973734e-04, -1.78520175e-04,
          9.91220149e-05, -4.91576138e-05, -3.88854460e-05,
          -1.81054085e-04, -1.67874241e-05, 2.12720752e-05,
          -1.01801917e-04, -2.87739531e-05, 1.05905470e-04,
          -1.36337752e-04, -1.06527754e-04, -7.86597011e-05,
          4.75649504e-05, -3.93457703e-05, -7.93184081e-05 ]
      - [ -1.50278822e-04, -9.12750693e-05, 3.21055522e-05,
          1.23520906e-04, 7.94971129e-05, 3.97410695e-05,
          -3.26826216e-06, 1.82776648e-06, -3.98703887e-05,
          4.10746179e-06, -9.82692582e-05, 1.16418450e-04,
          8.78428909e-05, 9.38372468e-05, 7.31647160e-05, 3.14587414e-05,
          -9.22468098e-05, 2.90877906e-05, 8.19360430e-05,
          6.97467767e-05, 7.12128458e-05, 4.94941305e-05,
          -6.46249973e-05, -6.45322189e-06, -8.04942829e-05,
          -2.03258824e-05, 2.80097574e-05, 6.58677800e-06,
          9.38993107e-05, 7.90094491e-05, 2.21990695e-06,
          -3.35683253e-05, 5.90492091e-05, 5.33531893e-05,
          -4.53141656e-05, -6.82573082e-05, 3.08949202e-05,
          -7.63012940e-06, 8.71231241e-05, 8.23440278e-05,
          3.25904548e-05, -6.04641500e-05, 1.76912508e-05,
          2.73104597e-05, 3.53064897e-05, -6.36807158e-07,
          3.68675355e-05, 5.09523161e-05, 6.56459451e-05,
          -2.04210810e-05, 3.68525070e-05, -6.65285042e-05,
          -1.73348762e-05, -1.05402969e-05, 6.26184337e-05,
          5.99053201e-05, 4.26781844e-05, 3.02022418e-05, 1.01571977e-05,
          -1.50732740e-04, -1.76893500e-05, 3.84461091e-05,
          4.02982878e-05, -3.24929970e-05 ]
      - [ 2.44961964e-04, 1.60226482e-04, 3.93789291e-04,
          -6.23494780e-05, -2.75747916e-05, -1.87968672e-05,
          -3.00828142e-05, -7.47874265e-06, -3.90876194e-05,
          -6.68595458e-05, -2.29513869e-04, 1.54948735e-04,
          3.47068963e-05, -1.26392639e-04, 1.28442116e-04,
          5.60093555e-04, -1.64116835e-04, 3.06137255e-04,
          -7.15653223e-05, -1.05279855e-06, 1.94931476e-04,
          2.86849536e-04, 3.33591233e-05, -9.99680833e-06,
          6.48131572e-06, -5.49489851e-05, -1.60687370e-04,
          3.11605021e-04, 3.67629371e-04, 1.23147793e-05,
          -5.14894236e-05, -2.17528926e-04, -1.45802929e-04,
          2.90834781e-04, -1.64775513e-04, -4.31583408e-04,
          -5.08134053e-06, 1.46233739e-04, 2.39943656e-05,
          3.13302735e-05, 2.47446093e-04, 5.26709155e-05, 1.70956439e-04,
          -2.44955358e-04, -3.77876102e-04, -3.74369702e-04,
          1.41688462e-04, -4.69859951e-04, -4.56337912e-05,
          -2.12627114e-04, -1.10289504e-04, -1.04019477e-04,
          -1.71877837e-05, -7.36825023e-05, 1.05983621e-04,
          1.84396529e-04, -2.40086752e-04, -3.25041125e-04,
          4.13311936e-05, -1.94804888e-04, 6.33886375e-05,
          1.27230131e-04, 4.17939300e-04, -1.57428134e-04 ]
      - [ -7.77256082e-06, 8.35242827e-05, 8.66446280e-05,
          1.32629313e-04, -8.43110229e-07, -2.77597312e-04,
          -2.05968332e-04, -8.95566973e-06, -1.15019371e-04,
          -6.00066305e-05, 1.04751009e-04, 2.54073995e-04,
          2.56434723e-04, -5.53001119e-05, -9.55529758e-05,
          -2.71181270e-05, -3.18756356e-04, 1.38263767e-05,
          -4.71357489e-05, 2.77381507e-04, 3.45018547e-04,
          9.72267881e-05, 4.36293194e-05, -6.00837348e-06,
          -1.15601586e-04, -4.44006291e-04, -2.68911772e-05,
          1.63691235e-04, 1.92202744e-04, 7.17087605e-05,
          -9.69328030e-05, -1.42741585e-04, -9.89350592e-05,
          -2.17807959e-04, -6.74943294e-05, -2.14742628e-04,
          -9.15019700e-05, -5.83333131e-05, 3.89117376e-05,
          -5.64186630e-05, 7.10759923e-05, -2.99406802e-05,
          -2.46265772e-05, -3.48353046e-06, -1.68027895e-04,
          -6.00507592e-05, 1.48674168e-04, 1.20601117e-05,
          3.48065696e-05, 1.29741660e-04, 1.47331421e-05,
          -9.79576362e-05, -5.54328690e-05, 3.15433754e-05,
          2.68019794e-05, -2.01294679e-05, 2.64739483e-05,
          1.64309473e-04, -2.85271981e-05, -2.30074453e-04,
          -2.69912824e-04, 3.27790694e-05, 1.72714936e-04,
          7.48983148e-05 ]
      - [ -2.79862812e-04, 3.53731193e-05, 1.34726506e-04,
          2.18088433e-04, -1.86791713e-05, -2.63492111e-05,
          -1.68170824e-04, -6.37709600e-05, -1.43010300e-04,
          -9.07339127e-05, -1.76637725e-04, 1.46938866e-04,
          2.33451065e-04, 1.56253998e-04, 7.24763813e-05,
          -4.05434657e-05, -6.86290659e-05, 1.17059833e-04,
          1.29724503e-04, 1.85406403e-04, -4.10667744e-05,
          -1.19370889e-04, 1.05547719e-04, -5.69399781e-05,
          6.74854255e-06, -3.67204775e-05, 1.01811245e-04,
          1.09722414e-05, 3.78900440e-05, -1.02424048e-04,
          1.51856642e-04, -3.80349557e-05, -1.79500799e-04,
          -2.91152464e-05, -7.06914871e-05, -1.65126665e-04,
          -7.98942056e-05, 2.49147470e-05, 1.72243570e-04,
          8.41998462e-06, 3.44692817e-05, 3.42135718e-05, 6.58557610e-06,
          4.44403922e-05, -1.81342271e-04, -1.28268643e-04,
          -1.50888072e-05, 1.79706258e-05, -1.95809160e-04,
          3.80931306e-06, 4.77979593e-05, -7.65766599e-05,
          -1.26203922e-05, -3.80305719e-05, 2.93563789e-04,
          4.75152092e-06, -2.58276123e-04, -2.21676790e-04,
          1.23167090e-04, 6.25476023e-05, 6.74403009e-06, 6.83230464e-05,
          -7.72786734e-06, -2.75894505e-04 ]
      - [ -5.78557010e-05, 5.15569482e-05, 8.38735741e-06,
          -1.83737734e-06, 2.18295809e-05, 3.84712366e-05,
          5.56467676e-05, 7.61417468e-05, -5.15170468e-05,
          4.15285140e-05, 5.86390779e-05, -7.32696572e-06,
          -1.39344811e-05, -1.60212567e-05, -1.19254983e-04,
          -1.40178265e-04, 4.21959849e-05, 9.60982725e-05,
          -1.15628871e-04, -2.23098414e-05, -4.26348015e-05,
          1.28507791e-05, -3.47402638e-05, 2.32266466e-05,
          6.48594214e-05, 4.33057030e-05, 1.08122054e-04,
          -8.26712130e-05, -4.80422386e-05, -1.99204824e-05,
          5.45725779e-05, 6.24630557e-05, 1.68691520e-04, 1.02560945e-04,
          1.19749595e-04, 5.75857439e-06, -8.80417574e-05,
          -1.12714821e-04, -1.09618204e-05, 5.13240375e-05,
          1.20734483e-04, -7.47077729e-06, -1.79382667e-04,
          -2.03146075e-04, -6.43630992e-05, -2.02816773e-05,
          -2.26119864e-05, 1.04869803e-04, -5.95790334e-05,
          -1.40067175e-04, 5.64127986e-05, -1.03133580e-05,
          -2.86320228e-05, -7.44814897e-05, -9.91972338e-05,
          7.06558649e-06, 3.44062028e-05, 8.22115180e-05, 1.69210543e-05,
          5.36775879e-05, 1.31098341e-05, 5.78958934e-05, 1.13657268e-04,
          -1.90024384e-05 ]
      - [ -3.32294789e-04, -6.41824226e-05, 9.23335610e-05,
          3.83155275e-05, 5.33582497e-05, 1.28224565e-04, 2.32311082e-04,
          1.73269495e-04, -2.06156401e-05, -2.39160254e-05,
          -3.02030530e-04, 1.77418260e-05, 2.31398972e-05,
          2.79185224e-05, 1.37248198e-05, 4.38698953e-05, 1.03647735e-05,
          1.02539670e-04, -1.31047200e-04, -5.12797851e-06,
          -3.62738319e-06, 1.18006079e-04, -4.04164311e-05,
          -5.66315393e-05, -2.59552180e-04, -5.74719877e-07,
          8.56927800e-05, 2.34872219e-04, 2.66278385e-05, 1.03382197e-04,
          7.12063047e-05, -1.16025156e-04, 2.09562029e-04,
          2.06628960e-04, -8.54829777e-05, -1.56673734e-04,
          -1.14679729e-04, -1.82108372e-04, -1.19621815e-04,
          1.73624954e-04, 1.00001860e-04, -2.41712245e-04,
          3.41237319e-05, -1.65021571e-04, 7.00600731e-06,
          -5.70876218e-05, -2.45214833e-05, 4.24662903e-05,
          6.25561588e-05, -1.71345295e-04, 5.83008932e-06,
          -9.43265768e-05, 4.63010620e-05, 1.35235314e-04,
          -6.76908894e-05, -8.28093252e-05, 1.82263699e-04,
          1.27111474e-04, -5.21425100e-05, -1.89343467e-04,
          -2.03836069e-04, 4.41509728e-05, 1.04720930e-04,
          4.94137112e-06 ]
      - [ 1.62542958e-04, 1.36605348e-04, -5.50912991e-05,
          -1.81776253e-04, -1.19973680e-04, 7.02414400e-05,
          1.00836864e-04, 7.02958641e-05, 7.19347663e-05, 8.30743284e-06,
          -1.09221393e-04, -1.46290506e-04, -2.17367226e-04,
          -1.11814828e-04, -6.70319059e-05, 1.10669360e-04,
          -2.81916618e-05, -1.86007732e-04, -1.08777633e-04,
          1.72429063e-05, -4.75554225e-05, 7.66516896e-05,
          7.74462969e-05, -7.41495069e-06, 1.75737259e-05,
          3.10156029e-05, -4.48111969e-05, 3.15637189e-05,
          1.57268354e-04, 2.11515842e-04, -6.35684191e-05,
          -3.08874187e-05, 1.13025388e-04, 1.55832007e-04,
          9.45252177e-05, -4.01129182e-06, -9.92830901e-05,
          5.37264350e-05, -3.28065398e-05, 4.86075332e-05,
          -2.82138099e-05, -3.51632734e-05, 1.34610855e-06,
          -1.19060285e-04, -6.13672601e-05, -2.25430151e-04,
          -5.65731170e-05, -1.48111038e-04, 6.03138506e-06,
          -1.97796078e-04, -1.39018783e-04, 4.45547121e-05,
          1.01328420e-04, 5.72397596e-07, -3.21590742e-05,
          -1.12872651e-04, -9.06009518e-05, -2.91346314e-05,
          -5.30204234e-05, 1.58717550e-04, 1.92363601e-04,
          1.56433365e-04, 2.11129474e-04, 4.08301275e-05 ]
      - [ 4.83544900e-05, 1.99266942e-04, -6.57502169e-05,
          -1.28809130e-04, -9.49398673e-05, -4.13451016e-05,
          4.11520450e-05, 2.24341929e-04, 1.13113150e-04,
          -1.14565963e-04, -9.05072520e-05, -3.14108038e-05,
          -1.70380459e-04, -2.37494489e-04, -3.33389849e-04,
          -3.60617123e-05, -7.65150617e-05, -7.59769027e-05,
          6.25613438e-06, 1.14002098e-04, 7.84120220e-06,
          -4.99655835e-05, 1.90845858e-05, -2.14003332e-04,
          -3.34119650e-05, 7.42032571e-05, 1.45349826e-04,
          7.70029001e-05, 1.37149589e-04, 1.73370834e-04,
          -1.02990591e-04, -1.58023497e-04, 1.77481095e-04,
          1.34779266e-05, 4.12295776e-05, 2.28891276e-05,
          -2.69790646e-04, -1.78319839e-04, -4.50323096e-05,
          1.47990477e-07, -4.57171591e-05, -1.16130956e-04,
          -1.36688410e-04, -3.10468720e-04, -1.86624471e-04,
          -2.68681964e-04, 1.27790581e-05, 3.38220416e-05,
          -5.98247207e-05, -2.08373487e-04, -9.39241581e-05,
          2.25802451e-05, 9.09200826e-05, 1.34082977e-04,
          -3.77521908e-04, -8.57977575e-05, 1.86670528e-04,
          1.25993683e-04, 1.34663578e-05, 7.46908190e-05,
          -1.27622014e-04, 1.15993258e-04, 8.45481190e-05,
          8.69181458e-05 ]
      - [ -5.29087483e-05, -3.35372679e-05, -3.96804389e-04,
          -2.86139373e-04, 1.90669361e-05, 2.60648201e-04,
          1.46770180e-04, -4.73339896e-05, -9.70258116e-05,
          -2.71293684e-04, -6.19135506e-04, -3.75451171e-04,
          -1.42772740e-04, -4.92263716e-05, -9.34267518e-05,
          -1.70697400e-04, 1.96304936e-05, 2.95242239e-06,
          -4.14279348e-05, 1.90814404e-04, -2.84732465e-04,
          -4.19304524e-05, -8.74762773e-05, 1.48451494e-04,
          1.22326775e-04, 6.39251593e-05, 2.74078479e-06, 2.78998312e-04,
          1.40091870e-04, 2.25913755e-04, -2.63906113e-04,
          -6.78103606e-05, 1.86895792e-04, 1.38691990e-04,
          -1.95653820e-06, 9.31081468e-06, -4.36319271e-04,
          -4.03474463e-04, -3.51265393e-04, -3.89265952e-05,
          1.24398852e-04, 1.43885307e-04, -1.57762712e-04,
          -5.06749842e-04, -6.88877655e-04, -4.37147100e-04,
          -2.61419860e-04, -1.10118453e-04, -2.94383153e-05,
          -4.13546804e-04, 1.56145892e-04, 2.70958350e-04,
          2.86020892e-04, -8.44637398e-05, -1.39248295e-04,
          -1.37764684e-04, -1.12143163e-04, 2.33372484e-04,
          2.00167546e-04, 4.98272711e-04, 2.49798904e-04, 2.13233361e-04,
          1.14758710e-04, -4.84050906e-05 ]
      - [ -6.51525697e-05, -1.19872660e-04, -9.44088315e-05,
          1.12735019e-04, 3.33235694e-05, 5.46168303e-05, 2.59963781e-05,
          1.13282957e-04, -8.81168453e-05, -1.18599753e-04,
          -1.47130108e-04, 5.37904380e-05, 1.46474295e-05,
          1.37412399e-05, 3.63705476e-05, 1.89946542e-04,
          -2.01591669e-04, 4.46604899e-05, 1.20645542e-04,
          6.50349011e-06, 2.81650937e-05, -6.61112645e-05,
          -5.77539367e-07, 2.59982244e-05, -1.41517463e-04,
          -6.22186344e-05, 8.11951541e-05, 2.50301673e-04,
          7.14541529e-05, 8.94502300e-05, -4.91615247e-05,
          -1.22861398e-04, -1.71058127e-05, 2.28486060e-05,
          -1.37294832e-04, -7.35413341e-05, 1.70571111e-05,
          1.80950723e-04, -3.34787801e-05, 2.08951642e-05,
          -1.45753787e-04, -4.11959809e-05, 1.81874333e-04,
          1.90618375e-04, 8.88030409e-05, -1.34821394e-05,
          1.48920517e-05, 4.64629375e-06, 9.57558659e-05, 5.29566314e-05,
          7.88395482e-06, -3.21177758e-05, 1.12204638e-04,
          1.05187675e-04, 7.15472270e-05, -4.74419830e-05,
          6.85466875e-05, 4.79693299e-05, -7.96369422e-05,
          -1.39695811e-04, -9.10549861e-05, -8.34811726e-05,
          2.38733592e-05, 1.15338444e-04 ]
      - [ 1.38658579e-04, 2.03043401e-05, -3.87163927e-05,
          -8.00457856e-05, -1.02099708e-04, 1.24026483e-05,
          3.74805531e-05, 3.50943519e-05, 7.42599741e-06,
          -6.39379723e-05, -4.91323372e-05, -4.28892599e-05,
          -6.39506616e-05, 1.61988355e-05, 9.62702034e-05,
          1.67624443e-04, -6.52836025e-05, -1.06395222e-04,
          1.25901628e-04, 2.02226547e-05, 9.16967474e-06, 4.38205498e-05,
          5.11956096e-05, -4.27525447e-05, -3.79579506e-05,
          -3.55439770e-05, -8.45704271e-05, 3.58725119e-05,
          7.35244248e-05, 1.15331379e-04, 2.58878226e-05,
          -1.24042184e-04, -8.59568318e-05, -5.37258275e-05,
          8.82865243e-06, 8.86171438e-06, 4.27508858e-05, 9.51703551e-05,
          1.93156629e-05, -2.40893405e-05, -5.10915525e-05,
          -5.55802253e-05, 1.33471476e-04, 2.19413632e-04,
          3.15011530e-05, -6.16950929e-05, -3.97650037e-05,
          -1.09317662e-04, 1.20418772e-04, 5.46330411e-05,
          -4.87488433e-05, 2.88455940e-05, 1.63134864e-05,
          3.48222638e-05, 6.37444537e-05, 2.51256515e-05,
          -3.27598573e-05, -6.52306699e-05, -1.79624351e-06,
          3.98564625e-05, 6.27369445e-05, 1.95600182e-06,
          -4.06043364e-06, -5.41404879e-05 ]
      - [ 1.76603324e-04, 5.33883576e-05, -8.30461940e-05,
          1.79390227e-05, -1.00970028e-04, -1.74817091e-04,
          -8.48482960e-05, 6.12645163e-05, 6.12836666e-05,
          -3.33386160e-05, -1.34906120e-04, -2.17265770e-04,
          1.32413887e-04, 1.50383901e-04, -4.98150112e-05,
          1.43997633e-04, -3.40152066e-04, -3.60359583e-04,
          1.66565907e-04, 2.80614127e-04, 2.47370714e-04,
          -2.09962309e-05, 9.99003751e-05, 1.41987810e-04,
          -1.76797519e-04, -2.08466910e-04, 3.07659247e-05,
          3.45718116e-04, 1.14059651e-04, 2.94475351e-04,
          -2.79263713e-05, -2.64795264e-04, -1.88373713e-04,
          -3.05538037e-04, -2.39877147e-04, -1.11165376e-04,
          -3.23536151e-05, -2.10268321e-04, -1.80515082e-04,
          -2.28028526e-04, -7.79559996e-05, 1.56956248e-05,
          1.38779986e-04, 3.83101578e-04, 4.07407570e-05,
          -6.43507883e-05, -8.69559808e-05, -1.86961450e-04,
          2.16573288e-04, 2.36659835e-04, 1.55420697e-04, 1.09376859e-04,
          2.65638315e-04, 8.67409763e-05, -5.95892161e-05,
          1.07851316e-04, 1.55395046e-05, -1.24096201e-04,
          2.28085719e-05, -1.95213986e-04, -1.87462632e-04,
          -3.24643741e-04, 1.03676408e-04, 2.94640544e-04 ]
      - [ 1.44794278e-04, 1.93228370e-05, -1.08959845e-04,
          -5.34929823e-05, -6.61951926e-05, -9.18865408e-06,
          -1.11624049e-05, -4.69531115e-05, 8.56864790e-05,
          -7.55754154e-05, -1.11504916e-04, 9.51303355e-06,
          -1.35577953e-04, -1.94443855e-05, 9.07509966e-05,
          1.21389494e-04, -1.31802270e-04, -3.62553619e-05,
          1.99921866e-04, -3.83911283e-05, 5.99965679e-05,
          -6.87589491e-05, 3.28811730e-05, -1.48652602e-04,
          8.36940490e-06, -2.47533844e-05, 4.57486603e-05,
          1.18007083e-04, 1.48795016e-06, 5.00382157e-05, 1.74859524e-05,
          -5.07275654e-05, -3.60628546e-05, -7.40076721e-05,
          -1.35474605e-04, 9.05882098e-06, 8.45264094e-06,
          1.09146167e-04, 1.08175314e-04, -1.71318417e-04,
          -1.01372731e-04, 3.67825742e-05, 1.88065940e-04,
          1.88943319e-04, -6.22633161e-05, -7.54891444e-05,
          -4.71213789e-05, -6.62293460e-05, 4.29682186e-05,
          3.92351394e-05, -5.43517817e-05, 4.20894685e-06,
          6.35795077e-05, 7.70812840e-05, 1.45860453e-04, 4.86916906e-05,
          -1.48335646e-04, -1.46244303e-04, 1.46961072e-04,
          6.69878718e-05, -1.67715261e-05, -4.74816261e-05,
          7.40436872e-06, -5.21835864e-05 ]
      - [ 1.74523855e-04, 7.99721383e-05, -9.01313626e-07,
          -9.44856947e-05, -9.23360349e-05, -2.03073687e-05,
          -6.06090771e-06, 1.25349952e-05, 4.47386083e-05,
          -1.42024701e-05, 8.68060379e-05, -8.24233066e-05,
          -9.07556678e-05, -4.00871650e-05, -3.54573458e-05,
          3.09485449e-06, -3.89144152e-05, -9.55795040e-05,
          -1.25947336e-05, -2.76890514e-05, 2.09829250e-05,
          2.04800090e-05, 6.57466153e-05, 1.41930050e-05, 2.54220904e-05,
          -3.63082509e-05, -5.93072073e-05, -1.30140393e-06,
          8.19602355e-05, 1.81002742e-05, 3.59280202e-05,
          -2.73798196e-05, -4.40633703e-05, 1.52243792e-05,
          8.49607895e-05, -1.51840750e-05, -4.35434595e-05,
          1.81050618e-05, 1.71388183e-05, -8.73545941e-05,
          9.70355632e-06, 3.50916634e-05, 8.15502244e-06,
          -2.45381852e-05, -3.64043299e-05, -4.14660426e-05,
          -1.62245487e-05, -8.28564953e-05, -4.20737633e-05,
          1.40658431e-05, -3.31529227e-05, 8.00817725e-06,
          -1.29934679e-05, -1.52298289e-05, 1.01545402e-05,
          -3.65000888e-05, -7.41231124e-05, -8.57164196e-05,
          1.39494468e-05, 9.33211631e-05, 6.48059504e-05, 2.13514045e-06,
          3.96055384e-06, 1.31917386e-05 ]
      - [ 3.48301983e-04, 3.38956539e-04, -8.92466633e-05,
          -2.53704056e-04, -1.81464551e-04, -1.05787884e-04,
          -1.06775246e-04, -6.15073877e-05, 6.68338616e-05,
          8.69106661e-05, 1.57760107e-04, -8.52685262e-05,
          -2.01947914e-05, -5.36090156e-05, -2.15528606e-04,
          -3.30713199e-04, -1.31913330e-04, -8.87165224e-05,
          -3.46914999e-06, 2.59526405e-06, 7.17783696e-05,
          -1.58274961e-05, 1.12802896e-04, -1.04086619e-04,
          1.45419335e-05, -7.69867329e-05, -1.32868241e-04,
          5.55595470e-05, 9.51834663e-05, -1.12490496e-04,
          -8.36112595e-05, -4.34544745e-05, -5.45911716e-05,
          -9.04126355e-05, 1.08315915e-04, 8.25471143e-05,
          4.72988795e-05, -6.73778122e-05, -2.51337158e-04,
          -1.44609337e-04, 3.06451911e-05, 8.79496220e-05,
          -2.91282195e-05, -8.28972770e-05, -1.12403708e-04,
          -1.00162790e-04, -4.91035098e-06, -1.15314921e-04,
          -1.65585137e-04, 1.11665700e-04, -7.75487060e-05,
          -1.33116246e-05, 5.60829540e-05, -1.36304334e-05,
          -1.73380729e-04, 2.87286241e-07, 9.73888928e-06,
          -3.65196720e-05, -4.73533219e-05, 1.00655314e-04,
          4.29669199e-05, 9.67633750e-05, -3.78518926e-05,
          7.05632119e-05 ]
      - [ 1.29886626e-04, 1.07282220e-04, -1.13800306e-04,
          -7.97989342e-05, 1.24491487e-06, -3.98235243e-05,
          -1.53490200e-05, -1.96337587e-05, 4.10033317e-05,
          2.21985192e-05, 9.11342067e-06, -2.65524741e-05,
          -5.78376312e-05, -1.06285115e-05, -2.89955169e-05,
          -8.76728809e-05, -4.35752845e-05, -2.78241587e-05,
          -5.65732989e-06, 1.63102886e-05, 6.32418050e-06,
          -4.93455336e-05, 1.58115108e-05, -1.07055803e-05,
          7.75916997e-05, 8.48922718e-06, -5.37784672e-06,
          -6.06476569e-05, 6.97172572e-06, -3.67857028e-05,
          6.29403003e-05, 1.76471167e-05, -2.13030307e-05,
          -3.98341872e-05, 1.08540771e-05, -2.06891527e-05,
          -4.18836935e-05, -3.15189682e-05, 1.03266784e-05,
          -1.29873195e-04, -4.11711117e-05, 7.94059815e-05,
          3.29509953e-06, -6.91314272e-05, -9.06526548e-05,
          -1.84974797e-05, -2.96419312e-05, -2.75749771e-05,
          -4.63107644e-05, 2.66702336e-05, -3.17887316e-05,
          7.96349195e-05, -2.81051234e-05, 3.72898285e-05,
          -7.46509386e-06, 2.58978434e-05, -1.90977662e-04,
          -1.12546339e-04, 1.71162712e-04, 1.65902078e-04,
          5.50347759e-05, -5.56869309e-05, -6.98733993e-06,
          -3.92344264e-05 ]
      - [ -4.36938390e-05, -4.43807858e-06, 1.42967074e-05,
          1.64943835e-04, 1.05387284e-04, -1.09072658e-04,
          -2.36184133e-04, -1.42391393e-04, -7.04215417e-05,
          -8.66360188e-06, 1.10214269e-05, 1.53276997e-04,
          2.76222592e-04, -3.00503416e-05, -2.58018874e-04,
          -4.22093028e-04, 6.18150589e-05, -2.45220581e-05,
          7.91269995e-05, 1.29696826e-04, 1.29532955e-05,
          -1.22600220e-04, -6.20289720e-05, -4.11899346e-05,
          -1.08474036e-04, -4.44621364e-05, 2.27258279e-04,
          -8.02406248e-06, -1.96798079e-04, -2.17722729e-04,
          -9.58267556e-05, 6.22665975e-05, -1.57834977e-04,
          -8.74860052e-05, -2.01190283e-04, 2.20781549e-05,
          -1.41628319e-04, -2.06037112e-05, -1.83257551e-04,
          1.36392628e-04, -6.46254121e-05, -6.52796152e-05,
          -7.58140086e-05, -1.08099848e-04, -5.48244134e-06,
          1.30242785e-04, -3.84012055e-05, 1.13418653e-04,
          2.23834322e-05, 5.90083000e-05, 6.51360460e-05, 1.09526234e-04,
          -9.36264987e-05, 1.61620133e-04, -6.47001616e-06,
          -2.26990902e-04, 2.66336952e-04, 1.36341027e-04,
          5.16716818e-06, -2.08647645e-04, -2.26561038e-04,
          -4.37338895e-05, -1.40173317e-04, 6.42649902e-05 ]
      - [ -5.71520650e-04, -2.61385780e-04, -1.07066138e-04,
          -1.85909666e-04, 3.22842854e-04, 5.03515010e-04,
          1.62360266e-05, -4.48102743e-04, -1.75835215e-04,
          4.54526948e-04, 1.19320452e-04, 5.41505113e-04, 4.67327656e-04,
          -6.46552144e-05, -2.16476998e-04, -2.92376179e-04,
          2.94269237e-04, 4.85109864e-04, 3.37561709e-04, 3.05637950e-04,
          -1.75097914e-04, -1.02403283e-03, -9.67216503e-04,
          -5.06933546e-04, -4.53969784e-04, 1.73417677e-04,
          5.96053142e-04, -5.33255161e-06, -4.70422150e-04,
          -8.63151625e-04, 2.61507434e-04, 2.91955628e-04,
          5.97202103e-04, 5.04384399e-04, 2.48532651e-05, 8.73497775e-05,
          5.12839433e-05, -9.40532773e-05, -1.86739981e-05,
          -2.35647152e-04, 2.40209614e-04, -1.44643782e-04,
          4.43727971e-04, 5.12496808e-05, 1.42283636e-04,
          -1.88610982e-04, 3.54640681e-04, 1.02789199e-03,
          -1.81565309e-04, 4.28496685e-04, -1.10523557e-04,
          -1.10056928e-04, 5.81050044e-05, -7.35596986e-05,
          5.65211696e-04, 6.07496651e-04, -4.04165912e-05,
          -5.09262281e-06, 1.55546499e-04, 5.50112512e-04,
          -2.33604253e-04, -5.29564277e-04, -6.30412309e-04,
          -5.26796852e-04 ]
      - [ -4.88596888e-05, -9.16626668e-05, -8.05626114e-05,
          -3.23872919e-05, 1.72260596e-04, 2.08048659e-05,
          1.10157380e-04, -3.17931881e-05, -1.79614854e-05,
          4.09484674e-05, -4.50570187e-05, 3.49673683e-05,
          -2.91706001e-05, 1.48861669e-04, 2.05174962e-04,
          -4.52347413e-05, 8.24988238e-05, 1.33596608e-04,
          -4.89710728e-05, -4.43905446e-05, -1.60699947e-05,
          -1.69763312e-04, -5.82383582e-05, -6.00778840e-05,
          4.53366665e-05, 6.02432301e-05, 1.22005687e-04,
          -4.91000901e-05, -1.62863929e-04, -6.97110081e-05,
          4.74702028e-05, 1.73109976e-04, 6.58090139e-05, 2.62776011e-05,
          -2.84875532e-05, 8.64103276e-06, 2.40703903e-05,
          1.45264630e-05, 3.89787056e-05, -3.57937606e-05,
          4.60648189e-05, -2.11260340e-05, 1.13943046e-04,
          -7.94216903e-05, -1.90697145e-04, -6.78471133e-06,
          -4.07769003e-05, 6.67117129e-05, -1.62626500e-04,
          3.81412133e-06, -1.53511282e-04, 7.40303876e-05,
          -2.22409562e-05, 2.19724716e-05, 1.19942350e-04,
          1.35623966e-04, -2.51284015e-04, -1.37616109e-04,
          1.51918415e-04, 2.74018443e-04, 7.22593541e-05, 3.18703060e-05,
          1.10846668e-04, -2.45558214e-04 ]
   decision_functions:
      -
         sv_count: 1
         rho: 1.2630113085490329e+00
         alpha: [ 1. ]
         index: [ 0 ]
      -
         sv_count: 1
         rho: 9.5300543008339689e-01
         alpha: [ 1. ]
         index: [ 1 ]
      -
         sv_count: 1
         rho: 7.4129029583133998e-01
         alpha: [ 1. ]
         index: [ 2 ]
      -
         sv_count: 1
         rho: 1.0356014793279154e+00
         alpha: [ 1. ]
         index: [ 3 ]
      -
         sv_count: 1
         rho: 6.2733685003271511e-01
         alpha: [ 1. ]
         index: [ 4 ]
      -
         sv_count: 1
         rho: 5.5996889181512566e-01
         alpha: [ 1. ]
         index: [ 5 ]
      -
         sv_count: 1
         rho: 3.2780381301766126e-01
         alpha: [ 1. ]
         index: [ 6 ]
      -
         sv_count: 1
         rho: 9.7828555299263420e-01
         alpha: [ 1. ]
         index: [ 7 ]
      -
         sv_count: 1
         rho: 1.0350073591971769e+00
         alpha: [ 1. ]
         index: [ 8 ]
      -
         sv_count: 1
         rho: 1.8747278429036779e-01
         alpha: [ 1. ]
         index: [ 9 ]
      -
         sv_count: 1
         rho: 6.4212507059266247e-02
         alpha: [ 1. ]
         index: [ 10 ]
      -
         sv_count: 1
         rho: 9.2109530735808264e-03
         alpha: [ 1. ]
         index: [ 11 ]
      -
         sv_count: 1
         rho: -2.8790327523941939e-01
         alpha: [ 1. ]
         index: [ 12 ]
      -
         sv_count: 1
         rho: 7.1306439331977389e-01
         alpha: [ 1. ]
         index: [ 13 ]
      -
         sv_count: 1
         rho: -5.9362967888849438e-01
         alpha: [ 1. ]
         index: [ 14 ]
      -
         sv_count: 1
         rho: -3.4313926393922023e-01
         alpha: [ 1. ]
         index: [ 15 ]
      -
         sv_count: 1
         rho: -9.1585380377116221e-01
         alpha: [ 1. ]
         index: [ 16 ]
      -
         sv_count: 1
         rho: 5.1950393474101131e-01
         alpha: [ 1. ]
         index: [ 17 ]
      -
         sv_count: 1
         rho: -2.8186838468888031e-01
         alpha: [ 1. ]
         index: [ 18 ]
      -
         sv_count: 1
         rho: -5.5816133545498470e-02
         alpha: [ 1. ]
         index: [ 19 ]
      -
         sv_count: 1
         rho: -5.9028388576316836e-02
         alpha: [ 1. ]
         index: [ 20 ]
      -
         sv_count: 1
         rho: -7.8357311064019253e-01
         alpha: [ 1. ]
         index: [ 21 ]
      -
         sv_count: 1
         rho: -1.4219071919123243e+00
         alpha: [ 1. ]
         index: [ 22 ]
      -
         sv_count: 1
         rho: -8.9809192829594597e-01
         alpha: [ 1. ]
         index: [ 23 ]
      -
         sv_count: 1
         rho: -1.9126657944983935e-01
         alpha: [ 1. ]
         index: [ 24 ]
      -
         sv_count: 1
         rho: -1.1475717750742903e-01
         alpha: [ 1. ]
         index: [ 25 ]
      -
         sv_count: 1
         rho: 3.7845445532440214e-01
         alpha: [ 1. ]
         index: [ 26 ]
      -
         sv_count: 1
         rho: 3.6009320079666929e-01
         alpha: [ 1. ]
         index: [ 27 ]
      -
         sv_count: 1
         rho: 6.7219234608913908e-02
         alpha: [ 1. ]
         index: [ 28 ]
      -
         sv_count: 1
         rho: -7.9465587322681941e-01
         alpha: [ 1. ]
         index: [ 29 ]
      -
         sv_count: 1
         rho: 1.8527684697274425e-02
         alpha: [ 1. ]
         index: [ 30 ]
      -
         sv_count: 1
         rho: -1.5314125595993084e+00
         alpha: [ 1. ]
         index: [ 31 ]
      -
         sv_count: 1
         rho: -4.1324743840905781e-01
         alpha: [ 1. ]
         index: [ 32 ]
      -
         sv_count: 1
         rho: -3.8063451097279427e-01
         alpha: [ 1. ]
         index: [ 33 ]
      -
         sv_count: 1
         rho: -2.1766222479614004e+00
         alpha: [ 1. ]
         index: [ 34 ]
      -
         sv_count: 1
         rho: -4.8816365909433668e-01
         alpha: [ 1. ]
         index: [ 35 ]
      -
         sv_count: 1
         rho: 6.3823485526949919e-01
         alpha: [ 1. ]
         index: [ 36 ]
      -
         sv_count: 1
         rho: -1.4450411338126740e-01
         alpha: [ 1. ]
         index: [ 37 ]
      -
         sv_count: 1
         rho: 5.0200223811347124e-02
         alpha: [ 1. ]
         index: [ 38 ]
      -
         sv_count: 1
         rho: 1.0707812659279224e-02
         alpha: [ 1. ]
         index: [ 39 ]
      -
         sv_count: 1
         rho: 3.4436520934286613e-01
         alpha: [ 1. ]
         index: [ 40 ]
      -
         sv_count: 1
         rho: -4.4762549007206021e-01
         alpha: [ 1. ]
         index: [ 41 ]
      -
         sv_count: 1
         rho: -7.1848178726302836e-01
         alpha: [ 1. ]
         index: [ 42 ]
      -
         sv_count: 1
         rho: 2.1330996420328732e+00
         alpha: [ 1. ]
         index: [ 43 ]
      -
         sv_count: 1
         rho: -5.8109067654261348e-01
         alpha: [ 1. ]
         index: [ 44 ]
